SVM-light Version V6.20
0 # kernel type
3 # kernel parameter -d 
1 # kernel parameter -g 
1 # kernel parameter -s 
1 # kernel parameter -r 
empty# kernel parameter -u 
19 # highest feature index 
6 # number of training documents 
2 # number of support vectors plus 1 
0 # threshold b, each following line is a SV (starting with alpha*y)
1 1:0.14839181 3:-0.1339265 5:0.53207374 6:0.27424222 7:0.51160544 8:0.26585084 9:0.17884897 10:0.38904211 17:-0.018145688 18:-0.049080424 #
