SVM-light Version V6.20
0 # kernel type
3 # kernel parameter -d 
1 # kernel parameter -g 
1 # kernel parameter -s 
1 # kernel parameter -r 
empty# kernel parameter -u 
19 # highest feature index 
5 # number of training documents 
2 # number of support vectors plus 1 
0 # threshold b, each following line is a SV (starting with alpha*y)
1 5:0.66604179 6:0.33504423 8:0.40307137 9:0.3126812 11:0.069713116 12:0.030703222 14:0.095269844 15:-0.060733352 #
